digraph Tree {
node [shape=box] ;
0 [label="X[0] <= 0.122\nmse = 0.547\nsamples = 100\nvalue = -0.144"] ;
1 [label="mse = 0.085\nsamples = 62\nvalue = -0.681"] ;
0 -> 1 [labeldistance=2.5, labelangle=45, headlabel="True"] ;
2 [label="mse = 0.064\nsamples = 38\nvalue = 0.732"] ;
0 -> 2 [labeldistance=2.5, labelangle=-45, headlabel="False"] ;
}