digraph Tree {
node [shape=box] ;
0 [label="X[0] <= 0.076\nmse = 0.514\nsamples = 100\nvalue = 0.059"] ;
1 [label="X[0] <= -0.525\nmse = 0.078\nsamples = 46\nvalue = -0.661"] ;
0 -> 1 [labeldistance=2.5, labelangle=45, headlabel="True"] ;
2 [label="X[0] <= -2.406\nmse = 0.055\nsamples = 40\nvalue = -0.726"] ;
1 -> 2 ;
3 [label="X[0] <= -2.765\nmse = 0.022\nsamples = 13\nvalue = -0.451"] ;
2 -> 3 ;
4 [label="X[0] <= -2.821\nmse = 0.003\nsamples = 4\nvalue = -0.253"] ;
3 -> 4 ;
5 [label="mse = 0.001\nsamples = 2\nvalue = -0.201"] ;
4 -> 5 ;
6 [label="mse = 0.0\nsamples = 2\nvalue = -0.305"] ;
4 -> 6 ;
7 [label="X[0] <= -2.636\nmse = 0.006\nsamples = 9\nvalue = -0.538"] ;
3 -> 7 ;
8 [label="mse = 0.001\nsamples = 3\nvalue = -0.44"] ;
7 -> 8 ;
9 [label="mse = 0.001\nsamples = 6\nvalue = -0.588"] ;
7 -> 9 ;
10 [label="X[0] <= -1.031\nmse = 0.017\nsamples = 27\nvalue = -0.859"] ;
2 -> 10 ;
11 [label="X[0] <= -2.113\nmse = 0.014\nsamples = 22\nvalue = -0.894"] ;
10 -> 11 ;
12 [label="mse = 0.003\nsamples = 6\nvalue = -0.735"] ;
11 -> 12 ;
13 [label="mse = 0.005\nsamples = 16\nvalue = -0.954"] ;
11 -> 13 ;
14 [label="X[0] <= -0.782\nmse = 0.003\nsamples = 5\nvalue = -0.704"] ;
10 -> 14 ;
15 [label="mse = 0.001\nsamples = 2\nvalue = -0.761"] ;
14 -> 15 ;
16 [label="mse = 0.001\nsamples = 3\nvalue = -0.666"] ;
14 -> 16 ;
17 [label="X[0] <= -0.171\nmse = 0.014\nsamples = 6\nvalue = -0.226"] ;
1 -> 17 ;
18 [label="X[0] <= -0.262\nmse = 0.003\nsamples = 4\nvalue = -0.298"] ;
17 -> 18 ;
19 [label="X[0] <= -0.347\nmse = 0.001\nsamples = 3\nvalue = -0.327"] ;
18 -> 19 ;
20 [label="mse = 0.0\nsamples = 1\nvalue = -0.372"] ;
19 -> 20 ;
21 [label="mse = 0.0\nsamples = 2\nvalue = -0.305"] ;
19 -> 21 ;
22 [label="mse = 0.0\nsamples = 1\nvalue = -0.21"] ;
18 -> 22 ;
23 [label="X[0] <= -0.068\nmse = 0.004\nsamples = 2\nvalue = -0.083"] ;
17 -> 23 ;
24 [label="mse = 0.0\nsamples = 1\nvalue = -0.148"] ;
23 -> 24 ;
25 [label="mse = -0.0\nsamples = 1\nvalue = -0.017"] ;
23 -> 25 ;
26 [label="X[0] <= 0.66\nmse = 0.068\nsamples = 54\nvalue = 0.672"] ;
0 -> 26 [labeldistance=2.5, labelangle=-45, headlabel="False"] ;
27 [label="X[0] <= 0.361\nmse = 0.018\nsamples = 16\nvalue = 0.406"] ;
26 -> 27 ;
28 [label="X[0] <= 0.298\nmse = 0.004\nsamples = 5\nvalue = 0.236"] ;
27 -> 28 ;
29 [label="X[0] <= 0.232\nmse = 0.001\nsamples = 3\nvalue = 0.19"] ;
28 -> 29 ;
30 [label="mse = 0.0\nsamples = 2\nvalue = 0.176"] ;
29 -> 30 ;
31 [label="mse = 0.0\nsamples = 1\nvalue = 0.219"] ;
29 -> 31 ;
32 [label="X[0] <= 0.328\nmse = 0.001\nsamples = 2\nvalue = 0.305"] ;
28 -> 32 ;
33 [label="mse = 0.0\nsamples = 1\nvalue = 0.328"] ;
32 -> 33 ;
34 [label="mse = 0.0\nsamples = 1\nvalue = 0.282"] ;
32 -> 34 ;
35 [label="X[0] <= 0.522\nmse = 0.006\nsamples = 11\nvalue = 0.483"] ;
27 -> 35 ;
36 [label="X[0] <= 0.407\nmse = 0.001\nsamples = 6\nvalue = 0.425"] ;
35 -> 36 ;
37 [label="mse = 0.0\nsamples = 1\nvalue = 0.384"] ;
36 -> 37 ;
38 [label="mse = 0.001\nsamples = 5\nvalue = 0.433"] ;
36 -> 38 ;
39 [label="X[0] <= 0.551\nmse = 0.002\nsamples = 5\nvalue = 0.553"] ;
35 -> 39 ;
40 [label="mse = 0.0\nsamples = 2\nvalue = 0.522"] ;
39 -> 40 ;
41 [label="mse = 0.002\nsamples = 3\nvalue = 0.574"] ;
39 -> 41 ;
42 [label="X[0] <= 2.573\nmse = 0.047\nsamples = 38\nvalue = 0.784"] ;
26 -> 42 ;
43 [label="X[0] <= 0.992\nmse = 0.017\nsamples = 32\nvalue = 0.862"] ;
42 -> 43 ;
44 [label="X[0] <= 0.706\nmse = 0.001\nsamples = 5\nvalue = 0.698"] ;
43 -> 44 ;
45 [label="mse = 0.0\nsamples = 1\nvalue = 0.646"] ;
44 -> 45 ;
46 [label="mse = 0.001\nsamples = 4\nvalue = 0.71"] ;
44 -> 46 ;
47 [label="X[0] <= 2.202\nmse = 0.014\nsamples = 27\nvalue = 0.892"] ;
43 -> 47 ;
48 [label="mse = 0.005\nsamples = 20\nvalue = 0.948"] ;
47 -> 48 ;
49 [label="mse = 0.005\nsamples = 7\nvalue = 0.734"] ;
47 -> 49 ;
50 [label="X[0] <= 2.84\nmse = 0.001\nsamples = 6\nvalue = 0.369"] ;
42 -> 50 ;
51 [label="X[0] <= 2.759\nmse = 0.0\nsamples = 3\nvalue = 0.397"] ;
50 -> 51 ;
52 [label="mse = 0.0\nsamples = 1\nvalue = 0.427"] ;
51 -> 52 ;
53 [label="mse = 0.0\nsamples = 2\nvalue = 0.381"] ;
51 -> 53 ;
54 [label="X[0] <= 2.866\nmse = 0.001\nsamples = 3\nvalue = 0.341"] ;
50 -> 54 ;
55 [label="mse = 0.0\nsamples = 2\nvalue = 0.353"] ;
54 -> 55 ;
56 [label="mse = -0.0\nsamples = 1\nvalue = 0.316"] ;
54 -> 56 ;
}