digraph Tree {
node [shape=box] ;
0 [label="X[0] <= 5.45\nentropy = 1.581\nsamples = 120\nvalue = [39, 37, 44]"] ;
1 [label="X[1] <= 2.85\nentropy = 0.696\nsamples = 41\nvalue = [35, 5, 1]"] ;
0 -> 1 [labeldistance=2.5, labelangle=45, headlabel="True"] ;
2 [label="X[0] <= 4.7\nentropy = 1.252\nsamples = 6\nvalue = [1, 4, 1]"] ;
1 -> 2 ;
3 [label="entropy = 0.0\nsamples = 1\nvalue = [1, 0, 0]"] ;
2 -> 3 ;
4 [label="X[0] <= 4.95\nentropy = 0.722\nsamples = 5\nvalue = [0, 4, 1]"] ;
2 -> 4 ;
5 [label="X[1] <= 2.45\nentropy = 1.0\nsamples = 2\nvalue = [0, 1, 1]"] ;
4 -> 5 ;
6 [label="entropy = 0.0\nsamples = 1\nvalue = [0, 1, 0]"] ;
5 -> 6 ;
7 [label="entropy = 0.0\nsamples = 1\nvalue = [0, 0, 1]"] ;
5 -> 7 ;
8 [label="entropy = 0.0\nsamples = 3\nvalue = [0, 3, 0]"] ;
4 -> 8 ;
9 [label="X[0] <= 5.35\nentropy = 0.187\nsamples = 35\nvalue = [34, 1, 0]"] ;
1 -> 9 ;
10 [label="entropy = 0.0\nsamples = 30\nvalue = [30, 0, 0]"] ;
9 -> 10 ;
11 [label="X[1] <= 3.2\nentropy = 0.722\nsamples = 5\nvalue = [4, 1, 0]"] ;
9 -> 11 ;
12 [label="entropy = 0.0\nsamples = 1\nvalue = [0, 1, 0]"] ;
11 -> 12 ;
13 [label="entropy = 0.0\nsamples = 4\nvalue = [4, 0, 0]"] ;
11 -> 13 ;
14 [label="X[0] <= 5.95\nentropy = 1.224\nsamples = 79\nvalue = [4, 32, 43]"] ;
0 -> 14 [labeldistance=2.5, labelangle=-45, headlabel="False"] ;
15 [label="X[1] <= 3.35\nentropy = 1.198\nsamples = 26\nvalue = [4, 18, 4]"] ;
14 -> 15 ;
16 [label="X[0] <= 5.65\nentropy = 0.684\nsamples = 22\nvalue = [0, 18, 4]"] ;
15 -> 16 ;
17 [label="entropy = 0.0\nsamples = 8\nvalue = [0, 8, 0]"] ;
16 -> 17 ;
18 [label="X[1] <= 2.55\nentropy = 0.863\nsamples = 14\nvalue = [0, 10, 4]"] ;
16 -> 18 ;
19 [label="entropy = 0.0\nsamples = 1\nvalue = [0, 0, 1]"] ;
18 -> 19 ;
20 [label="X[0] <= 5.75\nentropy = 0.779\nsamples = 13\nvalue = [0, 10, 3]"] ;
18 -> 20 ;
21 [label="entropy = 0.0\nsamples = 5\nvalue = [0, 5, 0]"] ;
20 -> 21 ;
22 [label="X[1] <= 2.65\nentropy = 0.954\nsamples = 8\nvalue = [0, 5, 3]"] ;
20 -> 22 ;
23 [label="entropy = 0.0\nsamples = 1\nvalue = [0, 1, 0]"] ;
22 -> 23 ;
24 [label="X[1] <= 3.1\nentropy = 0.985\nsamples = 7\nvalue = [0, 4, 3]"] ;
22 -> 24 ;
25 [label="X[0] <= 5.85\nentropy = 1.0\nsamples = 6\nvalue = [0, 3, 3]"] ;
24 -> 25 ;
26 [label="entropy = 1.0\nsamples = 4\nvalue = [0, 2, 2]"] ;
25 -> 26 ;
27 [label="entropy = 1.0\nsamples = 2\nvalue = [0, 1, 1]"] ;
25 -> 27 ;
28 [label="entropy = 0.0\nsamples = 1\nvalue = [0, 1, 0]"] ;
24 -> 28 ;
29 [label="entropy = 0.0\nsamples = 4\nvalue = [4, 0, 0]"] ;
15 -> 29 ;
30 [label="X[0] <= 7.05\nentropy = 0.833\nsamples = 53\nvalue = [0, 14, 39]"] ;
14 -> 30 ;
31 [label="X[0] <= 6.95\nentropy = 0.918\nsamples = 42\nvalue = [0, 14, 28]"] ;
30 -> 31 ;
32 [label="X[0] <= 6.35\nentropy = 0.901\nsamples = 41\nvalue = [0, 13, 28]"] ;
31 -> 32 ;
33 [label="X[1] <= 2.75\nentropy = 0.989\nsamples = 16\nvalue = [0, 7, 9]"] ;
32 -> 33 ;
34 [label="X[0] <= 6.25\nentropy = 0.985\nsamples = 7\nvalue = [0, 4, 3]"] ;
33 -> 34 ;
35 [label="X[1] <= 2.45\nentropy = 0.918\nsamples = 3\nvalue = [0, 2, 1]"] ;
34 -> 35 ;
36 [label="X[0] <= 6.1\nentropy = 1.0\nsamples = 2\nvalue = [0, 1, 1]"] ;
35 -> 36 ;
37 [label="entropy = 0.0\nsamples = 1\nvalue = [0, 0, 1]"] ;
36 -> 37 ;
38 [label="entropy = 0.0\nsamples = 1\nvalue = [0, 1, 0]"] ;
36 -> 38 ;
39 [label="entropy = 0.0\nsamples = 1\nvalue = [0, 1, 0]"] ;
35 -> 39 ;
40 [label="X[1] <= 2.4\nentropy = 1.0\nsamples = 4\nvalue = [0, 2, 2]"] ;
34 -> 40 ;
41 [label="entropy = 0.0\nsamples = 1\nvalue = [0, 1, 0]"] ;
40 -> 41 ;
42 [label="X[1] <= 2.6\nentropy = 0.918\nsamples = 3\nvalue = [0, 1, 2]"] ;
40 -> 42 ;
43 [label="entropy = 1.0\nsamples = 2\nvalue = [0, 1, 1]"] ;
42 -> 43 ;
44 [label="entropy = 0.0\nsamples = 1\nvalue = [0, 0, 1]"] ;
42 -> 44 ;
45 [label="X[1] <= 2.95\nentropy = 0.918\nsamples = 9\nvalue = [0, 3, 6]"] ;
33 -> 45 ;
46 [label="entropy = 0.0\nsamples = 2\nvalue = [0, 0, 2]"] ;
45 -> 46 ;
47 [label="X[0] <= 6.15\nentropy = 0.985\nsamples = 7\nvalue = [0, 3, 4]"] ;
45 -> 47 ;
48 [label="X[1] <= 3.2\nentropy = 1.0\nsamples = 4\nvalue = [0, 2, 2]"] ;
47 -> 48 ;
49 [label="X[0] <= 6.05\nentropy = 0.918\nsamples = 3\nvalue = [0, 1, 2]"] ;
48 -> 49 ;
50 [label="entropy = 0.0\nsamples = 1\nvalue = [0, 0, 1]"] ;
49 -> 50 ;
51 [label="entropy = 1.0\nsamples = 2\nvalue = [0, 1, 1]"] ;
49 -> 51 ;
52 [label="entropy = 0.0\nsamples = 1\nvalue = [0, 1, 0]"] ;
48 -> 52 ;
53 [label="X[1] <= 3.35\nentropy = 0.918\nsamples = 3\nvalue = [0, 1, 2]"] ;
47 -> 53 ;
54 [label="entropy = 0.0\nsamples = 1\nvalue = [0, 1, 0]"] ;
53 -> 54 ;
55 [label="entropy = 0.0\nsamples = 2\nvalue = [0, 0, 2]"] ;
53 -> 55 ;
56 [label="X[1] <= 3.15\nentropy = 0.795\nsamples = 25\nvalue = [0, 6, 19]"] ;
32 -> 56 ;
57 [label="X[1] <= 2.85\nentropy = 0.9\nsamples = 19\nvalue = [0, 6, 13]"] ;
56 -> 57 ;
58 [label="entropy = 0.0\nsamples = 4\nvalue = [0, 0, 4]"] ;
57 -> 58 ;
59 [label="X[1] <= 2.95\nentropy = 0.971\nsamples = 15\nvalue = [0, 6, 9]"] ;
57 -> 59 ;
60 [label="entropy = 0.0\nsamples = 2\nvalue = [0, 2, 0]"] ;
59 -> 60 ;
61 [label="X[0] <= 6.55\nentropy = 0.89\nsamples = 13\nvalue = [0, 4, 9]"] ;
59 -> 61 ;
62 [label="entropy = 0.0\nsamples = 4\nvalue = [0, 0, 4]"] ;
61 -> 62 ;
63 [label="X[0] <= 6.65\nentropy = 0.991\nsamples = 9\nvalue = [0, 4, 5]"] ;
61 -> 63 ;
64 [label="entropy = 0.0\nsamples = 1\nvalue = [0, 1, 0]"] ;
63 -> 64 ;
65 [label="X[0] <= 6.75\nentropy = 0.954\nsamples = 8\nvalue = [0, 3, 5]"] ;
63 -> 65 ;
66 [label="X[1] <= 3.05\nentropy = 1.0\nsamples = 4\nvalue = [0, 2, 2]"] ;
65 -> 66 ;
67 [label="entropy = 1.0\nsamples = 2\nvalue = [0, 1, 1]"] ;
66 -> 67 ;
68 [label="entropy = 1.0\nsamples = 2\nvalue = [0, 1, 1]"] ;
66 -> 68 ;
69 [label="X[1] <= 3.05\nentropy = 0.811\nsamples = 4\nvalue = [0, 1, 3]"] ;
65 -> 69 ;
70 [label="entropy = 0.0\nsamples = 1\nvalue = [0, 0, 1]"] ;
69 -> 70 ;
71 [label="entropy = 0.918\nsamples = 3\nvalue = [0, 1, 2]"] ;
69 -> 71 ;
72 [label="entropy = 0.0\nsamples = 6\nvalue = [0, 0, 6]"] ;
56 -> 72 ;
73 [label="entropy = 0.0\nsamples = 1\nvalue = [0, 1, 0]"] ;
31 -> 73 ;
74 [label="entropy = 0.0\nsamples = 11\nvalue = [0, 0, 11]"] ;
30 -> 74 ;
}